3 48 30 11
0.348567 -0.821042 -0.539958 0.0948935 0.0188024 1.09461 0.43263 0.813088 -0.81385 0.521908 2.51473 2.4619 1.98843 0.345897 -0.407907 0.551265 -0.0490198 -0.302496 0.524593 -0.740816 -0.337282 0.212999 -0.964725 0.650802 0.514299 -1.35628 0.702594 -0.951094 -0.62526 -0.0559868 0.273806 -0.339403 0.397766 0.938523 0.803059 -0.327345 0.657079 1.04751 -0.121465 0.941133 0.526692 0.787602 0.304453 0.747118 0.00672073 0.121993 0.684441 -0.489978 0.808412 -0.107847 -0.468849 -0.535145 -0.570873 -0.299547 -0.652791 -0.905888 0.131961 0.750856 -0.753809 -0.745095 -0.144245 -0.777923 -0.0630215 -0.591959 1.34302 -0.533551 -0.174221 0.748942 0.673358 -0.0538053 0.136077 -0.303704 -0.132967 -0.659823 -0.76052 -0.871911 0.694874 -1.0914 -0.41256 0.449407 0.488337 0.465069 -0.946413 0.952001 -0.544211 -0.657437 1.4822 1.13546 -0.389778 -0.154165 1.26674 0.342093 -0.324697 -0.209854 0.241921 -0.564532 -0.0857725 0.568133 -1.34015 -0.428777 -0.227414 0.194008 0.169318 0.826954 0.555265 -1.35337 0.173442 -0.244147 -0.10337 -0.306171 0.182639 -0.82409 1.22913 0.322206 1.00315 -0.341416 0.488789 0.775578 0.791903 0.262934 -0.802788 0.735737 -0.685704 -0.760705 -0.443173 0.463657 -0.145326 0.568824 0.143009 0.900474 -0.188875 -0.58844 -0.205601 1.03884 0.729531 0.022426 -0.158489 1.08653 1.36602 0.455736 1.31007 -0.34313 -0.0111045 0.779891 0.207295 -0.41057 0.663164 -0.273614 0.0711688 1.16801 -0.665851 0.525544 1.16881 -0.324508 -1.4581 -1.18372 -1.35488 0.457361 -1.13345 0.370502 0.097915 -0.387353 0.55662 0.683472 -0.516406 0.119834 -0.880588 -0.392591 -0.384513 0.826257 0.472006 -0.504696 -0.500553 -0.545866 -0.668554 -0.681072 0.452633 -0.828388 0.114059 -0.390176 -0.415661 -0.418239 0.127102 -1.28327 0.566071 0.639173 -0.56067 0.517786 0.280526 -0.465993 0.554716 -0.326068 0.263758 -0.0960011 -0.654877 0.500376 -0.986245 -0.511446 -0.228097 0.235371 -0.522838 -0.512413 0.536133 0.0516266 -0.685845 -1.11563 2.55293 3.18296 1.63961 -0.588626 -0.170614 -0.130086 0.0996282 1.14965 -0.0029586 -0.231611 0.504882 0.366263 -0.423166 -0.194284 0.937289 0.0227074 0.124706 -0.541184 -0.708452 0.693939 -0.811039 1.01205 0.213422 0.735578 -0.739416 0.060494 -0.125948 -0.0163136 0.0234501 0.972387 -0.101054 0.611407 0.648602 -0.0602639 -0.863323 0.928123 0.446439 0.00143932 0.507403 -1.07081 0.342899 -0.169868 0.356194 -1.21906 0.551143 0.137396 0.515089 -0.67511 0.689061 -0.289504 -0.685322 -0.447863 0.987154 -0.00574077 0.777252 -0.742108 1.14859 -0.226236 -0.572078 -0.660498 0.953993 -0.216259 -0.783597 0.524896 0.107736 -0.784823 0.292522 -0.315384 0.219606 -0.158298 0.299635 -0.0609174 0.787626 -0.289126 -0.00322447 0.302162 1.29212 0.19127 1.26778 1.16795 0.842096 -0.48276 -0.627739 0.404953 -0.0624688 0.501774 0.364939 -0.502774 -1.13856 -1.14235 0.41575 -0.791419 -0.154627 0.569553 0.428533 -0.748421 0.35391 -0.168494 2.53767 1.84012 2.94462 -0.408217 0.964905 0.388979 -0.073369 0.000314529 -0.0536028 0.0552627 0.258375 -0.369541 -0.186524 -0.33519 -0.24261 -0.279162 -0.882258 0.564696 -0.275844 0.678045 -0.640608 0.401891 1.06377 0.86581 0.0607947 -0.537257 -0.259035 0.402584 0.324593 -0.477328 1.10553 -0.319232 0.254983 0.690997 0.290272 -0.13338 0.750906 0.101571 0.951384 -0.565584 -0.718383 0.417491 0.531464 0.0754215 -0.549286 -0.535311 -1.44631 -1.67175 -1.79861 0.348079 -1.12647 -0.506435 -0.436644 1.00037 -0.516606 0.712863 -0.48588 -0.0134424 -0.450381 0.335248 0.368101 -0.544116 0.95685 -0.342964 -1.02542 0.350898 0.560736 0.611903 -0.592669 0.305059 -0.0913367 0.0175322 0.207495 0.786102 0.717177 -0.205166 -0.284366 -0.273803 0.735219 -0.113138 1.06814 0.412288 0.36899 -0.343662 0.218963 0.129461 -1.01061 0.143909 -0.680805 0.338105 0.819373 1.19371 0.272195 1.09586 -0.353434 -0.98279 -2.45143 -2.43428 2.95382 1.94699 3.11511 -0.240263 1.15437 -0.107257 -0.187409 0.551586 0.228326 -0.590001 0.503348 -0.219278 0.0232997 0.485988 -0.858893 -1.07966 1.03163 -0.27298 0.452514 -0.367527 -0.606109 -0.705061 0.360892 0.7047 0.972545 -0.443579 -0.683625 -0.464189 -0.937741 -0.352651 -0.393412 -0.165846 -0.546977 -0.480216 0.993265 -0.664045 -0.654887 0.330661 -0.243427 -0.93312 -0.821456 -0.236216 0.113129 0.0673741 -0.612341 0.208004 -0.330538 -1.61461 -1.36034 0.221065 -0.443424 0.179823 0.128632 0.671519 -0.349775 -0.0886134 1.07488 -0.418297 -0.0992163 0.648091 -0.409745 0.385901 0.262497 0.475016 0.454221 0.103237 0.595978 -0.767837 -0.12591 -0.229355 0.104789 0.389983 0.886091 0.876867 -0.713434 0.7387 0.335694 0.994033 1.1614 0.669799 -0.0599867 -0.602243 -0.685019 0.686436 0.595776 -0.352049 -0.498847 0.404531 -0.0546777 0.392366 0.46642 -0.907514 -0.0841203 0.224753 0.872924 -1.03978 -2.15461 -0.636648 0.7129 -0.0389946 -0.531235 -0.454523 -0.417102 -0.33815 -0.755738 -0.452307 1.07078 0.0913931 0.679479 0.302734 -0.535654 -0.640128 0.489421 -0.627085 -0.679332 -0.0859721 0.162258 -0.0663342 -0.331076 0.0971169 -0.294599 -0.705732 0.0506847 -1.08595 0.0174409 0.793137 1.06775 1.03813 0.366026 0.44779 -0.225382 0.466837 0.85104 -0.363902 0.0483377 0.719043 -0.563562 -0.283888 0.110941 -0.332551 -0.40728 0.720549 0.46674 -0.64698 -0.636843 -0.173086 -0.0265298 0.188849 -0.219046 -0.135033 1.00618 0.548863 0.209464 0.177257 0.616761 -0.661704 -0.796015 -0.507913 0.251146 -0.0797197 0.570813 0.567823 -1.40429 0.22141 -1.1505 -0.0791392 0.139042 -0.453789 -0.216366 -0.23258 0.554059 0.190165 -0.402036 -0.427802 1.00099 1.1822 1.59267 0.609421 -0.051691 -0.105598 0.669621 -0.514673 0.719773 -0.757597 0.437831 -0.260115 -0.9077 0.44798 0.77129 0.948759 -0.409486 0.741363 0.478792 0.448267 -0.281578 0.812339 1.20724 2.18997 0.768118 0.412311 -0.143498 1.17923 -0.781548 0.0989054 -0.433672 0.604201 -0.851817 -1.08339 -0.372067 -0.446688 -0.646546 -1.54869 0.0227459 -1.18942 -0.868406 -0.182925 -0.191405 0.191655 -0.402837 -0.473742 0.370585 0.891601 1.05542 0.584371 0.609015 -0.145513 -0.068961 0.811797 -0.70173 -0.123396 0.17142 -0.468807 -0.915073 0.130787 -0.110654 -1.08121 -0.352986 0.548203 -0.661813 0.435995 1.36943 -0.478404 -1.30294 -0.34893 -0.495884 1.6078 2.50716 2.69382 -0.691859 -0.0491301 -0.191929 0.180594 -0.472314 -0.448849 1.31682 0.347003 0.0099531 -0.353942 0.0167724 0.0825078 -0.884936 0.465482 -0.443894 -0.362485 -0.0764232 0.440776 0.785786 1.22702 0.701045 0.137754 0.00860263 -0.298124 0.217868 1.31681 -0.118523 0.751538 -0.529992 0.972243 0.357456 -0.369336 -0.541057 0.638942 0.636734 -0.681989 0.83356 0.833802 0.787848 -0.0849665 0.711109 1.45036 0.225248 -2.40543 -1.67276 -2.91383 0.616912 -0.925134 -0.986009 0.262928 -0.362532 0.788837 0.0278432 0.725169 -0.385366 0.227492 0.150932 -0.145422 -0.426659 0.592745 -0.174771 0.478872 -0.909608 -0.180632 0.21819 0.675517 0.0450556 0.633838 0.574545 0.021837 0.279809 -0.507172 -1.0125 0.291941 1.05538 1.20059 0.415951 0.507613 -0.753721 0.77673 0.0150782 -0.383898 -0.632569 -0.0167014 0.334209 0.324574 -0.322143 0.09272 -0.576837 0.21382 -0.230012 0.246901 -0.390421 -0.807377 -1.12609 -0.468864 -0.587965 0.824548 0.713329 0.747189 -0.369999 0.488248 -0.19751 0.0955402 -0.491465 -0.771493 -0.219835 0.769004 0.766348 0.00150934 0.0289776 -0.39249 0.394001 -1.02825 -0.917138 0.192848 0.975532 0.0658673 -0.487901 -0.790176 -0.800554 -0.0616765 0.676072 0.447918 0.767898 0.886108 0.876718 0.996836 0.391378 0.409486 0.435365 0.697242 -0.0722865 -1.00515 -0.626699 0.261796 -0.205221 0.853302 0.38448 0.0783151 -0.00607164 0.00142535 0.0264156 -0.648759 1.95682 1.85127 2.34913 0.206735 -0.200978 -0.471472 -0.00922061 -0.302802 0.351819 -0.283905 0.521 -0.477184 -0.67271 0.105361 -0.688984 -0.350157 -0.66892 0.183977 -0.26194 0.473343 0.338072 -0.581542 0.400789 -0.504826 0.967286 -0.125808 -0.252268 0.93371 -0.252508 1.27084 1.11466 0.506541 0.564178 0.799695 0.0640629 0.809427 0.0161555 0.473592 0.219944 -0.75229 -0.228757 0.554322 -0.00725025 -0.200742 1.55287 0.0227297 -2.73623 -2.62096 -2.47045 0.574016 0.722737 -0.830693 0.149252 0.0545068 -0.574468 0.047858 0.577816 -0.275325 -0.122503 0.932707 0.195807 -0.563626 0.399913 -0.558697 0.350263 0.7162 0.416077 -0.0737253 0.591911 -0.238821 0.406013 1.23476 -0.664299 0.227072 -0.998251 -1.59023 -0.216036 -0.0466526 -0.400886 0.0487751 -0.649982 0.7666 0.684765 1.40614 0.211697 0.294299 0.342084 -0.812178 -0.586336 -0.970315 -0.805689 0.668868 -0.720224 0.47243 0.922369 -1.11989 -0.0325176 0.26929 0.0275337 -0.18902 -0.346358 -0.696902 0.0703108 0.0376745 1.00878 0.638175 0.0293184 -0.387493 -0.913239 -0.0652488 0.752926 -0.609059 -0.0912634 -0.567644 -0.694527 0.573382 -0.852138 -1.01813 -0.891688 0.363663 -0.563304 -0.509576 0.0154223 -0.0609951 0.852541 0.464641 0.426744 0.416166 -0.204211 1.2803 1.01152 0.0177196 1.08597 -0.508488 0.284162 0.636746 0.427136 -1.28777 -0.951001 0.891862 0.113943 -1.24358 -0.523951 0.624217 0.581295 -0.155601 0.995607 2.85386 1.53764 2.85627 0.746033 0.476363 -0.486372 -0.376132 1.4143 -0.472413 0.164447 -0.0868868 0.197548 0.496498 -0.210365 -0.140983 -1.69025 -0.539249 -0.176613 -0.110821 -0.495901 -0.589696 1.25246 0.30267 -0.184493 0.239655 0.436272 -0.134401 0.618612 -0.332605 0.188941 0.10124 0.918035 0.457369 -0.783877 0.137793 -0.761976 -0.875648 -0.100119 0.708686 -0.935128 0.785411 -0.46017 0.251013 0.0982636 0.209792 0.888941 0.233716 0.434033 -0.324292 0.235552 -0.84689 0.649223 0.0433241 0.175305 1.1958 0.77512 1.13773 -0.399607 -0.519497 -0.902664 0.195184 -0.204032 -0.957821 -0.499818 -0.506668 0.0125451 -0.4432 -0.172377 -0.943939 -0.599946 0.4125 -0.909 0.0107337 -0.317546 0.397969 -0.843546 -0.119981 0.102544 1.0523 0.689394 1.18589 1.02082 0.0394635 -0.055319 -0.210036 -0.243105 -0.493025 -0.486405 -0.330942 -0.337222 -0.0250079 -0.452754 0.558426 0.386239 -0.232555 -0.0995661 0.935645 0.642452 2.62723 2.6172 2.70414 -0.246177 1.22948 -0.10349 0.00374133 0.554641 0.176341 -0.598812 -0.931002 -0.212451 0.788508 0.97887 -0.426543 -1.35866 -0.273635 0.116724 -0.363935 0.373514 0.367435 0.11212 -0.1392 -0.0692912 0.316856 -0.438537 0.509745 0.108734 0.979798 0.647208 1.45739 0.63239 0.602102 0.52054 -0.683371 -0.083094 -0.4742 -0.745767 -0.724086 0.0726729 -0.696872 -0.496896 -0.629161 -0.949281 -0.531118 -0.412945 0.213013 0.182496 -0.800232 1.68249 1.50231 2.96908 0.503164 0.417782 -0.524005 -0.694507 0.918607 0.896986 -0.448745 -0.522638 -0.0909903 -0.895773 0.520049 0.91298 -0.235451 0.701707 -0.379507 -1.5237 -0.904321 -0.285075 1.09924 0.14281 0.877685 1.00071 0.14342 0.765401 0.482056 -0.531835 0.00244354 0.247956 -0.146571 0.223165 -0.378579 -0.947488 0.960127 0.152659 -0.379994 0.399304 -0.258343 -0.0449158 1.17366 0.956214 0.202798 0.821054 0.601252 0.00776722 0.327084 -0.283811 1.43267 1.70336 2.13722 -0.33105 1.10298 0.00155417 -0.71427 -0.16464 -0.473815 -0.192938 -0.346277 -0.0302201 0.473621 0.285142 -1.01194 -1.20436 0.369716 0.731746 0.134043 1.03355 0.0947187 0.802851 -0.228424 -0.102934 0.721459 -0.877005 -0.636888 0.696021 -0.0823741 0.251133 0.912491 0.275569 -0.488501 0.660057 -0.59948 -0.47314 -0.618964 -0.549032 0.0444715 -0.339867 0.102581 0.714501 0.822115 -0.276856 0.101414 0.879839 -0.249674 -0.764384 0.685026 -0.931033 -0.719156 0.152923 -0.732056 0.487472 -0.489523 0.881125 0.596636 -0.137367 0.260832 -0.615811 -0.860174 0.191679 -0.791722 -0.220401 -0.743408 -0.688289 0.00182129 -0.181895 -0.186281 -0.898791 0.855945 -0.825495 0.882195 0.686793 -0.00708263 -0.0586756 0.894447 1.15918 0.601237 0.578211 1.1705 0.781467 -0.441517 1.00475 -0.16101 -0.407668 0.602683 -0.981854 0.00831777 -0.387732 -0.360239 0.339548 0.759618 -0.0481545 0.663804 0.134711 0.443564 0.593973 2.34392 2.4874 1.92596 0.0197843 0.996801 -0.145967 -0.482435 -0.0610844 0.893305 -0.362346 -0.238672 0.287499 -0.985766 -0.309388 -0.136953 -0.993912 -0.299434 0.473702 -0.240695 -0.400086 0.420688 -0.301838 0.459394 -0.577623 1.07973 0.514631 0.0360346 1.32756 1.24458 0.655478 0.286962 0.261731 0.372909 0.976431 -0.177804 0.206454 0.00725043 0.922599 -0.881774 -0.204707 -0.60599 -0.11914 -0.737047 -0.477872 0.674415 0.175489 0.00801846 -0.887541 -0.328127 -0.541055 -0.301878 -0.331295 0.0178004 1.13643 0.082297 -0.320835 0.334946 0.805054 -0.510856 -0.0426314 0.180604 0.299423 -0.654133 -0.47907 -0.0781217 0.108088 0.688319 -0.919613 0.0378232 0.780122 0.249656 0.665814 -0.25638 0.512393 -0.729205 -0.66847 -0.0114967 0.678104 -0.157373 0.651734 1.09923 0.45236 -0.814167 -0.166881 0.242043 -0.186136 0.340752 -0.820001 -0.843896 0.777105 0.671804 0.750726 0.153726 1.01357 -0.811905 -0.774042 -0.532979 0.648511 1.56509 2.61944 2.57674 0.757468 0.814305 -0.681632 -0.0695739 1.02409 -0.10437 -1.03505 -0.0400608 0.219059 0.442814 -0.208812 -0.545461 -0.0390197 0.627022 0.528315 -0.828959 0.156404 -0.975256 0.43016 0.406821 0.628988 -0.343698 -0.795448 -0.214277 0.678736 0.20959 0.833031 0.302951 0.496174 0.429015 -0.241335 0.667161 -0.0316878 0.269299 0.160135 -0.267676 0.580492 -0.171629 1.02095 0.424942 -0.361863 0.260366 0.798667 -0.484773 -0.58584 0.741305 1.92461 2.34897 2.58635 -1.17649 -0.214568 0.105596 -0.844735 0.0142346 0.870208 0.616764 0.426225 0.239829 -0.502932 0.00263205 -0.322769 -0.326173 -0.136639 0.519721 -0.848766 0.969597 -0.741586 -0.37714 0.171157 -0.698183 1.07228 1.06072 0.0996297 1.62368 -0.163996 0.642552 0.974434 0.431715 0.162789 0.101132 0.446467 0.186975 -0.662882 -0.404887 -0.693222 -0.805657 -0.378884 -0.894074 0.94264 0.358637 0.498459 -0.193034 -0.59955 -1.1654 -0.726096 0.346729 -0.897662 0.109417 0.861503 0.275448 0.413297 0.731355 0.155184 -0.830334 0.519767 0.324403 0.405001 0.0724865 -0.224539 -0.792488 -0.701078 -0.541994 0.745463 -0.311722 0.107545 0.903618 0.212131 0.796303 -0.803091 -0.125773 -0.0164926 0.397606 0.75381 0.824299 0.636214 -0.657548 0.176474 0.678424 0.372077 -0.00756257 -0.109124 -0.370626 -0.292235 -1.08622 5.14868 -0.974982 0.695132 1.10355 0.10735 -4.12119 0.413799 -2.63838 -0.898779 -6.82034 -0.575757 0.686895 0.441588 1.86117 -2.16925 -1.67174 -0.957266 -1.56215 -3.2503 -0.575124 -1.63422 0.942952 -1.31854 -0.805801 0.0300869 1.15594 -1.6456 -0.898055 -1.38024 -1.91371 -0.944596 -0.494041 -2.01622 0.407986 -0.568195 0.176307 0.816362 -0.0629997 -0.328599 -0.296625 2.2626 0.220621 0.782363 -0.786919 -2.48963 -1.03874 4.47382 0.00560617 -1.56949 6.192 0.216125 -2.00316 -1.05497 -1.20973 -1.56395 -0.410702 0.905785 -1.73749 0.112818 -0.644523 -0.346494 0.503767 -1.17045 0.865526 -0.336481 -0.531389 -0.685605 -0.509276 0.54317 1.16551 -0.0254866 3.89267 -1.23497 0.0528287 -0.521206 0.75951 3.02135 -0.607824 -0.191358 0.675854 -1.44015 -0.271334 -1.14789 -0.105361 -0.500006 0.0334303 1.45739 -0.49636 -0.383742 -0.0569699 1.81835 -0.0267542 -0.765839 -3.88803 0.632607 -0.142215 -0.543337 -0.243518 5.49394 0.499343 2.35754 -0.831596 4.14925 0.444169 -0.907051 -0.301759 0.29174 2.94747 -2.4339 -0.0877234 3.01298 -1.26816 -0.130467 1.21865 0.0594273 2.96143 1.15886 0.118034 -1.01728 2.32822 -1.03129 2.43184 2.01731 -0.68639 0.373422 2.05369 0.350523 0.0131692 -0.245205 1.48625 -0.118018 2.2574 -0.331182 0.398761 0.45492 -0.622274 -0.593945 -0.115227 1.51673 -3.22817 -0.0770724 1.09783 -2.83545 -0.875948 1.18518 -0.568632 0.15076 1.89048 1.39278 -0.84046 1.96156 0.707906 1.5428 0.166132 -0.854538 3.93986 -1.57818 0.930535 0.980216 0.25162 -2.4378 -0.128353 -2.19727 -0.894364 -1.94441 -0.874044 1.28654 0.830446 0.739077 -2.70116 -0.456362 -0.370175 -0.712468 -1.22472 0.0578567 -2.20696 -0.0168942 -0.705268 -3.08352 -0.499549 0.330626 -0.471115 -0.650083 -0.30979 -0.522984 -0.077147 -4.65459 4.62189 -0.632007 -0.513911 0.152603 2.07358 -1.28324 3.07895 -1.77907 -1.5172 -0.702226 -2.10722 -1.3814 1.36076 2.44151 -2.06941 -0.308366 0.468022 -3.17587 -1.06322 5.6342 -0.425555 5.6874 1.07089 0.990616 -0.82552 3.87317 0.08779 3.50863 4.4134 -1.35018 2.25762 3.1862 -0.464339 -0.587801 0.00481208 0.26229 -0.915793 1.41436 -1.68796 -2.9402 0.354666 -0.221217 0.761101 0.146605 -0.655095 -2.91015 0.418671 0.265983 -4.03037 0.856141 2.96248 -0.710713 2.26974 1.63578 2.15379 0.32451 1.74356 -0.569936 0.632776 1.76654 -0.745836 4.49713 -1.7693 0.510009 -0.0197212 0.206136 -0.673349 0.846409 -1.12538 0.0522278 -3.35582 1.12945 0.808463 1.5352 -2.591 -2.71882 0.461966 -0.0587813 -1.04191 -0.449806 -0.651232 -1.04528 0.962157 -2.08571 -1.36296 -1.42792 -0.137845 -2.29211 -0.90188 -2.73555 -1.66725 -0.352491 -2.83301 -2.48058 -1.08784 -0.519391 -0.157244 1.18105 0.464916 -2.36845 2.28799 5.4637 -0.36553 0.218704 -1.34341 0.222217 2.43312 3.41325 -0.282689 1.88549 5.22355 0.362926 -0.866662 -0.166062 -1.58175 0.633448 -1.33929 0.386429 -0.0818242 -0.887979 -1.13283 0.369211 0.393076 -1.98204 -2.81629 0.774711 -0.633298 2.99258 -2.60142 0.564334 -3.32727 4.54633 -1.05121 -0.207736 0.563122 -0.407663 -2.34668 -3.43233 7.1283 2.31428 -1.79412 5.24907 0.578519 -1.73451 0.346011 -2.77666 -1.65308 -0.0162472 0.620478 -0.200232 0.593509 -4.02008 -3.04421 1.20539 